{'name': 'weights', 'data': [[-0.10405083523012548, 0.08786141836904622, -0.6404374220936772, -0.04316298305421994, -0.08107345170397028, 0.11566732638842034, 0.03716805561239753, -0.6053602297751327, -0.6575163217593376, -0.21392770351620116, 0.30872011624044615, -0.009369669532065307, 0.15519564473650996, -0.10511988132617095, 0.1950248487652474, -0.37151450042844975, 0.34177784341258505, 0.05740479029838753, -0.03544299731209936, -0.016119825673757134, 0.2470494780830778, 0.47481849922681063, -0.18265801323937453, -0.10954347971299531, 0.06354609495974117, 0.014891702391333883, -0.3506728857241641, -0.12277989060686763, -0.31071209826984514, -0.13738035445280355, 0.07687559644904625, -0.27243077906246915, 0.32652815238719946, -0.09664617427253483, 0.4121433556663256, 0.2401871407818076, -0.10539308849724856, -0.015480603395971263, -0.1944657866241542, 0.0906833620899449, -0.3522795537055579, 0.11358999087104985, 0.23117753809620598, 0.09694348963694081, 0.10421256324205452, 0.1228445282580026, 0.05047859798723073, -0.007445032437473065, -0.224791092214386, -0.0008167583166014727, -0.0986834292868986, 0.31031228280928874, -0.21477520062775537, -0.0792371923145765, -0.187275088422147, -0.18384988677114988, 0.23027350320888987, -0.07385445980358436, 0.13660188548025337, -0.15018281520945984, -0.20050746478140238, 0.253658860118871, -0.28528580602031856, -0.09654242569583042, 0.525526179340924, 0.7342433198817567, -0.28318159263027487, 0.19609743790836953, 0.026065601952606834, 0.054048680904317074, 0.1782985300894362, 0.015096214627121915, -0.09373536495205004, 0.11393556665362298, -0.05874339618663213, -0.2284510710163496, -0.08802953645578951, -0.3741159835824762, -0.03404699352581743, -0.6186204049606532, -0.02242795529799061, -0.017907332539865574, -0.1519582690782074, -0.24333013729176245, -0.044913872091477826, -0.16684181640334955, 0.0029119047188003832, 0.10047510950038857, -0.14820123323881101, 0.18751441793608684, -0.38500926446381967, -0.05997946506124471, 0.3213389554900903, 0.1060241255024958, -0.12546603099338813, -0.2673546217939845, -0.03616365926307515, 0.12279787588961198, 0.01977971993448925, -0.10636012917646204, 0.3486744114146318, 0.3095429109617973, 0.06093792745104685, -0.15126887275814982, -0.026908527636942247, 0.04398308648001084, -0.02136464895115469, 0.15376884876869354, -0.028541132393793942, 0.12140748487116085, -0.07461830386536498, -0.38491647976747745, -0.16831913669430965, -0.16028863784810762, 0.2665807020133659, -0.02350039340754864, -0.3060325211106936, -0.11924599692216092, 0.098993531917784, -0.13509775714647973, 0.4449575461054971, 0.16079676114991437, 0.156173262494751, -0.03002606102377169, 0.048688817821807694, 0.27659041984981636, 0.20227487134970365, 0.09889769773378768, -0.10110896287731552, -0.6464804832044161, 0.23078230559081075, 0.21040267927254896, 0.016047401850355945, -0.10364512207809463, 0.47940821811506473, -0.0651093807451645, 0.12496118247165373, 0.17305554998966133, 0.24469770101499222, -0.26922302429888384, -0.2790152717934898, -0.18093519881532502, 0.021950351180041086, -0.6113414834244293, -0.0334663647429371, -0.02710042659535516, -0.10598004040686161, 0.11423613491818665, -0.2862649392507436, 0.17647646823551444, -0.4207995967673004, -0.0392502951244673, -0.07401802825949666, 0.16478607322716682, 0.08702269826638677, -0.05161711551574985, 0.44344210280598545, -0.27244828236200613, -0.023198799217293477, -0.06562380361525351, -0.2192455281549881, -0.056444496454425695, 0.14836053350495693, 0.049362173881761846, 0.1566647435033817], [0.09734209180906149, -0.0849090484777015, 0.6441419132642686, 0.04467370721176189, 0.08576723045348476, -0.11657242807624343, -0.041632630983082446, 0.6114187140993484, 0.6592312891450574, 0.21263075385681393, -0.30455199224956137, 0.008299529739705144, -0.1610646773109042, 0.10042425247672308, -0.1940188738688282, 0.3715568460038886, -0.33917249013505324, -0.05108756956314436, 0.03495925913226486, 0.018582292295843527, -0.24222991754142117, -0.4746631883840059, 0.18078250059207476, 0.11567480430453309, -0.06039593494586127, -0.008620586956890174, 0.3422633054887908, 0.12452578483913451, 0.3083109308388272, 0.13718686193301172, -0.07555636748915323, 0.27184808220095935, -0.32626153400311764, 0.09538438450754806, -0.409089570552455, -0.2350654109460378, 0.10308825776921923, 0.013880454712378242, 0.19212513331486705, -0.08835851243363549, 0.3594504956564497, -0.11029959936227766, -0.23062611629751587, -0.09635683628768478, -0.1038830263791502, -0.12138791167673502, -0.04909306603529652, 0.003856346055851898, 0.23278435973720948, 0.00937003408303152, 0.09713363455346802, -0.30833465449420666, 0.2131605571723376, 0.08085647896473108, 0.1868453675546068, 0.1835488538188716, -0.23379267502994355, 0.06921059803499413, -0.13555021121382993, 0.14754997190554298, 0.20143821611232207, -0.25255819860705947, 0.27960926831587557, 0.10010736727651255, -0.526018832546839, -0.7330827275655036, 0.28020428020889626, -0.19874587790742473, -0.01825217710753555, -0.054991338749768554, -0.18188196318037098, -0.013013966069708918, 0.09443554898895146, -0.10893934678589738, 0.05411524124033903, 0.22486688556610862, 0.08256351678444716, 0.3673892274418283, 0.031909384946324997, 0.6183793835703938, 0.020310694452996183, 0.012869363266629732, 0.15645644959794341, 0.2404610290013081, 0.04513346710408496, 0.16765666543297233, 0.0017282645187539714, -0.0942616694540796, 0.14633859799279175, -0.185549857918818, 0.39014943066044777, 0.052661131938631735, -0.3233569618305161, -0.1070619223849475, 0.12180673968459722, 0.26270138249749136, 0.04031176394352462, -0.11900511201881066, -0.010858477268300451, 0.10483410537691933, -0.3473169407985393, -0.3154374592682587, -0.06412603460278365, 0.15804143147746538, 0.024280364867132323, -0.04584114361984754, 0.01996687964067754, -0.15264820007892638, 0.024267236777028862, -0.11946133055714639, 0.07292725085051438, 0.3862081382898329, 0.16593442297220218, 0.1604775787158201, -0.27060995538220617, 0.019045139056806583, 0.30693670287694563, 0.11662974950531527, -0.09957929991766844, 0.13675998237685874, -0.44638284019101243, -0.1587223316408607, -0.15287267107884786, 0.03789774119911088, -0.04719403968164516, -0.27570697884300577, -0.2109150441020721, -0.09795961580824356, 0.10380935360154539, 0.6467883481602661, -0.23376015667543298, -0.20783118160370193, -0.015204876468627306, 0.09789879165914535, -0.4795890386281552, 0.06522382947907888, -0.13012096472688278, -0.1716098756949583, -0.2466091435886254, 0.26249510389330766, 0.277171928484666, 0.17805618636253626, -0.021166737857903423, 0.6063506903025295, 0.02910376559987857, 0.025420135543076938, 0.10744211689493309, -0.10740797001871467, 0.2789545936522639, -0.17450225403779876, 0.417022353857539, 0.03978379947393168, 0.07312372591774734, -0.15867549021569266, -0.08064980273101126, 0.054554883895786235, -0.44515242304854785, 0.2736893963915172, 0.022198528438591554, 0.06479867323685687, 0.2186531872641763, 0.05446551623967947, -0.1519697753316804, -0.04888497243048219, -0.15426468168918167]]}