{'name': 'weights', 'data': [[0.056356783625904544, -0.0669535331848932, -0.31752150601297785, -0.09302665692384103, 0.004921590273313164, 0.05870281087816162, -0.09348598321670275, -0.2114651492221654, -0.27942073267779877, -0.09071319094245764, 0.06332397437144834, 0.10179142866089592, -0.015278161178237997, 0.043724814421167754, 0.1661852518727783, -0.07168396981292291, 0.13837017614232325, 0.04434511346897691, 0.06382948157446451, 0.028827666055516715, 0.08104695966174857, 0.11386485282864295, 0.03195504996965156, 0.09914684960221298, -0.003789947017927449, -0.047315059503437056, -0.0483098481345319, -0.05423757978702516, -0.029901841483026242, -0.04949331648426658, -0.004897531171331607, -0.050830184315790596, 0.08547406029526054, -0.06645560180222855, 0.02896721333052816, 0.00031011209764572546, -0.033113162258466, -0.013558931495399213, -0.08089665989909865, 0.24498605186371727, -0.0498127087160031, 0.06987950452508773, -0.003117675448971737, 0.06376164052047291, 0.12561333242721892, -0.024986347924912767, 0.022297142912713855, 0.019260854608613723, 0.021392560980624396, 0.005299272543528276, 0.057685368608702416, 0.018451699280275957, 0.012553564724489851, -0.0026560458312357223, 0.006373716426684604, -0.007491158852092967, -0.03831969123318799, 0.02247045645695008, 0.1254334130821687, -0.12890032882510072, -0.005986273317657971, -0.007337782525763691, -0.01903222623815044, -0.10935803133075327, 0.1879447020937212, 0.16897819888399038, -0.025960349204593815, 0.09725716176060792, 0.026201792146471368, 0.03139712228682182, -0.11522139006828752, -0.023601537360667436, -0.03866627417677258, 0.04942259626223661, -0.04954236944592504, -0.1253883028329251, -0.07184569257273887, -0.14951477443146663, 0.0003779901258670926, -0.16716023327813556, 0.018855163216772133, -0.06326407346349953, -0.03474395156247498, -0.16719917281153407, -0.0015202213144019988, -0.028766207493724834, -0.17321007657743026, 0.0033182614695823585, -0.12673610116975592, 0.0823438352601773, 0.042876458057987184, 0.02165537724132642, -0.005436074070461194, -0.029015413039745856, -0.15469111725795123, -0.09727721590805971, 0.037682835270136814, -0.03765804796011036, -0.02587183100817361, -0.0490764099635319, 0.10756153624328246, 0.020240177320779453, -0.14278801222944143, -0.042725795184482246, 0.06978045146495389, 0.008475032555892915, 0.0023859354630333873, 0.08492922396895136, -0.02404009993107208, 0.015082460125646223, -0.02660640379500248, -0.04573064618852126, -0.031163173633454857, -0.0556724005499813, 0.10386969911482352, 0.07985265994246608, -0.002213380307251348, 0.02663163075070207, -0.07062989579548588, 0.058984453275569594, 0.15834523421836197, 0.11067334764953957, 0.04770650235653526, -0.07079903627558035, 0.013034425979670885, 0.19898586680044567, -0.021653680693636372, 0.014035281354209422, 0.01144218348495219, -0.10437467925210293, 0.05645302671683617, -0.03081072006375392, -0.038245857595905416, -0.04152579194688309, 0.029958638618260418, 0.027072837068908215, -0.0737609107864069, 0.014904372815980982, -0.0014256017667201985, -0.12197910711001092, -0.05619101990096229, -0.08416897730307007, 0.01524973851266942, -0.1537565621529931, 0.06016281395555187, 0.02724977772564751, -0.0973834497665687, 0.06888757363391837, -0.16957953909292978, 0.014650990405181809, -0.06933539893447933, 0.006075007635368481, -0.027128992847935175, 0.08749403908303634, 0.046791829817615385, -0.08010676043623928, 0.13063366305452523, 0.04166869537810787, 0.0002999961716920152, 0.0230876601507827, -0.10110503120534124, 0.005706171073368173, 0.024040987752358328, -0.011321099606783265, 0.02242713029970328], [-0.05630715538982531, 0.06446897671520896, 0.324363769764978, 0.08900175279822879, 0.0005862167677891332, -0.05672487769972804, 0.09222917949069216, 0.21032075446971948, 0.27764582150182227, 0.09528196784503708, -0.06771103969881137, -0.0983918098755635, 0.016241784635119196, -0.041920062315664475, -0.16530824521586462, 0.07657613627192257, -0.14329786175321774, -0.047434201392133606, -0.06302890642807321, -0.02862330849443663, -0.08624319988945846, -0.11649705195632111, -0.033703249576827736, -0.1082577122699558, 0.0007196910948264212, 0.04656634629450889, 0.05070407927785138, 0.050193679927679966, 0.03754659739893868, 0.0559034393292223, 0.004813940958968708, 0.05211333176606958, -0.08779115487288157, 0.0695551226761853, -0.027781479649255446, -0.004220648462247059, 0.023278499589165447, 0.014223013647283435, 0.08137979680554021, -0.24430657932465802, 0.04923515682762091, -0.06922448039295068, 0.0011803148797264436, -0.06227057032128518, -0.12770821476699587, 0.024254408426275527, -0.020217557237929177, -0.015539855527869212, -0.021315447012894378, -0.003240905286067087, -0.05879007833499725, -0.018953221436990894, -0.01236114165564626, 0.006176654541113549, 0.002328669045339282, 0.0050786908572871495, 0.03899874725029827, -0.022445443121719127, -0.12143899344602757, 0.13041079393369126, 0.012522265512613266, 0.00509006750684926, 0.021890735425042017, 0.11712139547442989, -0.18720903673109304, -0.16278165096316843, 0.0225833210749708, -0.09426434363198105, -0.019748922117292008, -0.024560353856660968, 0.11921207233955883, 0.022646472016123922, 0.037555743250470175, -0.048857902412127, 0.05470741462443906, 0.12578211652581722, 0.07431634297363207, 0.1516613562742642, 0.0032701711709373217, 0.16099352541022433, -0.01922918451652299, 0.06112483116412787, 0.03097924127610248, 0.17140789848335408, 0.0037665186567284203, 0.023684931670369867, 0.1691807195994398, -0.005968669254462203, 0.12925170327137817, -0.0832635715782315, -0.04786737831791785, -0.024184275456903468, 0.007041775375994259, 0.029226757851151284, 0.15240361431778338, 0.09158687565855295, -0.03769924876830344, 0.03685501044061876, 0.025269846673423354, 0.04439315606324767, -0.10638166919739482, -0.018773437857728382, 0.13856542952677064, 0.04493643277209921, -0.0683888835306908, -0.00771031246430346, -0.003570721249592052, -0.08231423620833193, 0.026497777427757118, -0.017238712992794548, 0.022679084570201284, 0.04342859644622549, 0.0372842204995877, 0.05334230609400651, -0.10513951560821569, -0.08223104546184531, 0.009513652705469696, -0.030651189350541806, 0.07363004308646826, -0.05931477002687599, -0.16183160280961204, -0.11168744290879909, -0.04939489271377027, 0.070713124200648, -0.0054484821782525, -0.19213095526593818, 0.016054290062147293, -0.013078001656649766, -0.007464504735564114, 0.1055984781736918, -0.06149824810116002, 0.03166543805708853, 0.03735631077327217, 0.04525688810983856, -0.02667077641237989, -0.026432910730729856, 0.07062108619963763, -0.016300190497804477, -0.005674485580867568, 0.11742643029215989, 0.057258074877520014, 0.08656002897592038, -0.020631391842160254, 0.15299009229981375, -0.060919805300085575, -0.02084676039621882, 0.09973283335264509, -0.07283591150840096, 0.16288023743709035, -0.017544976984969443, 0.07025989786997565, -0.01489823785432116, 0.029393372833567164, -0.08757586217838331, -0.04547075570938391, 0.07329998583115929, -0.1396872959958945, -0.03680609537152762, 0.0032053747228564466, -0.02483028770806693, 0.10903147782202154, -0.007719613780973162, -0.02954368376892296, 0.008712277997385024, -0.022279437549865083]]}